svm_type c_svc
kernel_type rbf
gamma 19
nr_class 2
total_sv 37
rho 0.113806
label 3 1
nr_sv 20 17
SV
3.45489052771249 1:0.062577 2:0.070104 3:0.28024 4:0.007617 5:0.074441 6:0.109119 
0.8416925188989279 1:0.106111 2:0.1151 3:0.411976 4:0.022309 5:0.116234 6:0.190933 
0.979309824919205 1:0.105938 2:0.100095 3:0.358974 4:0.276037 5:0.03251 6:0.098969 
6 1:0.069667 2:0.076495 3:0.117381 4:0.041463 5:0.071494 6:0.095111 
6 1:0.056839 2:0.057335 3:0.044237 4:0.039013 5:0.025271 6:0.038105 
6 1:0.030819 2:0.022448 3:0.043796 4:0.005974 5:0.011506 6:0.007776 
3.276658446844071 1:0.123871 2:0.12407 3:0.232819 4:0.067093 5:0.152268 6:0.223247 
6 1:0.052918 2:0.03358 3:0.084615 4:0.002062 5:0.050494 6:0.023559 
2.385460377873801 1:0.079272 2:0.081886 3:0.204744 4:0.060026 5:0.042358 6:0.076383 
1.676523762676605 1:0.123148 2:0.155885 3:0.191716 4:0.036526 5:0.181021 6:0.33882 
0.9235979056316812 1:0.143512 2:0.190659 3:0.200969 4:0.020949 5:0.274292 6:0.509242 
1.108473718311738 1:0.197087 2:0.253288 3:0.226986 4:0.081728 5:0.561047 6:0.928878 
6 1:0.036998 2:0.018235 3:0.012165 4:0.002908 5:0.007841 6:0.004952 
6 1:0.026405 2:0.021049 3:0.004981 4:0.002469 5:0.008718 6:0.006397 
6 1:0.026736 2:0.020813 3:0.007463 4:0.001934 5:0.00643 6:0.006683 
2.758867548224792 1:0.055051 2:0.034157 3:0.296417 4:0.014934 5:0.037918 6:0.022192 
6 1:0.058297 2:0.044892 3:0.067612 4:0.039586 5:0.029271 6:0.022574 
6 1:0.041426 2:0.023351 3:0.06383 4:0.005724 5:0.017059 6:0.008503 
2.283811312663292 1:0.064647 2:0.041582 3:0.10262 4:0.128063 5:0.026892 6:0.034979 
0.1900518461181034 1:0.044 2:0.025175 3:0.079455 4:0.029104 5:0.018084 6:0.010381 
-0.1685872594663518 1:0.148212 2:0.207056 3:0.479029 4:0.048675 5:0.188483 6:0.58659 
-6 1:0.038562 2:0.026812 3:0.010989 4:0.010318 5:0.014414 6:0.012127 
-6 1:0.025908 2:0.013853 3:0.002392 4:0.003085 5:0.010885 6:0.002331 
-6 1:0.059999 2:0.058897 3:0.267956 4:0.025404 5:0.046119 6:0.076741 
-6 1:0.065194 2:0.072899 3:0.111111 4:0.05844 5:0.049084 6:0.060961 
-6 1:0.044215 2:0.031886 3:0.205263 4:0.010708 5:0.032272 6:0.016909 
-6 1:0.096723 2:0.129699 3:0.162384 4:0.065887 5:0.065699 6:0.188893 
-2.059095180261115 1:0.056256 2:0.053873 3:0.02139 4:0.031913 5:0.04031 6:0.045016 
-6 1:0.038077 2:0.012735 3:0.004592 4:0.009084 5:0.019464 6:0.001613 
-6 1:0.038327 2:0.015011 3:0.007194 4:0.006085 5:0.014979 6:0.003027 
-2.663607711078636 1:0.126729 2:0.168116 3:0.388309 4:0.08632 5:0.161271 6:0.396884 
-6 1:0.039582 2:0.038509 3:0.012848 4:0.027095 5:0.009457 6:0.009 
-2.92368038262077 1:0.03496 2:0.010699 3:0 4:0.025925 5:0.011578 6:0.0012 
-0.88601209499215 1:0.665215 2:0.859184 3:0.95549 4:1 5:1 6:1 
-0.4123363622039314 1:0.062084 2:0.070283 3:0.051802 4:0.030226 5:0.072126 6:0.106425 
-6 1:0.049235 2:0.051047 3:0.016847 4:0.024247 5:0.031804 6:0.012501 
-4.766018799251753 1:0.07173 2:0.083895 3:0.060046 4:0.013074 5:0.070639 6:0.111981 
